float classify_weight[2][768]=
{
		{-0.00092, -0.05005, -0.01361, 0.01486, -0.00235, 0.00831, -0.02833, 0.01589, 0.01718, 0.02363, -0.00671, 0.00207, 0.01384, 0.01257, 0.06458, 0.01024, -0.03514, -0.01055, -0.01132, 0.01208, 0.00131, 0.03268, -0.02116, -0.00181, 0.03381, 0.02408, 0.01745, -0.00225, -0.01724, -0.01835, 0.00183, -0.02416, -0.02891, -0.00544, 0.02959, 0.03024, -0.01377, -0.01744, 0.00504, -0.02059, 0.00871, -0.01328, 0.00093, 0.02161, -0.01290, -0.00448, -0.02260, 0.02063, 0.00772, 0.00034, -0.00063, 0.00134, -0.00469, 0.03503, 0.00090, 0.01309, -0.02324, -0.01781, -0.03539, 0.03816, -0.00671, 0.01842, -0.01461, -0.01472, -0.00545, 0.00146, -0.00504, -0.00125, 0.00403, 0.01726, -0.02540, -0.01656, -0.00729, -0.02732, 0.01149, 0.01704, -0.02479, -0.01156, 0.01578, -0.01580, 0.00226, -0.02142, 0.01537, 0.03279, -0.03548, -0.00353, 0.01182, -0.03032, -0.00473, -0.00595, -0.06081, -0.04790, -0.04724, 0.00987, 0.00633, 0.02925, 0.00238, 0.00615, 0.02501, -0.00060, -0.02025, 0.02309, 0.02425, 0.00418, 0.00442, -0.00765, 0.03840, 0.01163, 0.02797, 0.01542, 0.00262, -0.01783, -0.00074, -0.04616, -0.00313, -0.00456, -0.00279, 0.00419, 0.00981, -0.00452, 0.04902, -0.00512, -0.01131, -0.00213, -0.01117, -0.02793, -0.02120, 0.00663, -0.00583, 0.01935, 0.02182, -0.01153, 0.04359, -0.00679, 0.00872, 0.00337, 0.01222, -0.02205, -0.00936, 0.00287, 0.00352, -0.03415, 0.00687, -0.00833, -0.00035, -0.00728, 0.03489, -0.02050, 0.01655, -0.01696, 0.02372, 0.02108, 0.03300, 0.00462, 0.01145, 0.00051, -0.00617, -0.00375, 0.01552, -0.02390, 0.03491, -0.03048, 0.00418, 0.00414, -0.00405, -0.01814, -0.02246, -0.01955, 0.02262, 0.00119, 0.00951, -0.03682, -0.02264, -0.02265, -0.00035, 0.00956, 0.00070, 0.03620, -0.01308, 0.02344, -0.00385, 0.02408, 0.04886, -0.00259, -0.02136, 0.02585, -0.01948, -0.02481, -0.00665, -0.01777, 0.03196, -0.01027, 0.01086, 0.02200, -0.01823, 0.01427, 0.00660, -0.03062, -0.01638, -0.02878, 0.01587, -0.00232, -0.00171, 0.03257, 0.01450, 0.01426, -0.00333, 0.01163, 0.00275, -0.03966, -0.00615, -0.01036, 0.01354, 0.02136, 0.03950, -0.00518, -0.02423, 0.02632, 0.04394, -0.00205, 0.00987, -0.01245, -0.01914, 0.04283, -0.01749, -0.03063, -0.01855, -0.00075, 0.01840, -0.01144, 0.00915, -0.01140, -0.00778, 0.01068, 0.03275, 0.00303, 0.00520, 0.00376, -0.01588, -0.02747, 0.02697, 0.01516, 0.00926, 0.02911, -0.01743, 0.01528, 0.00717, -0.01689, -0.00218, -0.01466, -0.02090, 0.01860, -0.00572, -0.03334, 0.00646, 0.00904, 0.03541, -0.01768, 0.00115, 0.00138, 0.02701, -0.00718, 0.00450, 0.02151, -0.00957, -0.00235, 0.02628, -0.00210, -0.00649, 0.00821, -0.00732, -0.01443, 0.03486, -0.01022, 0.05166, -0.00312, -0.01070, 0.00453, 0.00040, 0.01275, -0.00789, 0.00299, -0.01014, 0.01181, -0.01199, 0.02395, 0.02584, -0.02166, -0.02059, -0.03755, 0.02300, 0.02133, 0.01446, -0.02543, 0.00928, -0.01044, 0.00676, 0.01769, -0.00589, 0.01710, -0.01322, 0.01364, -0.00363, 0.00934, 0.00862, 0.01257, -0.00397, -0.02906, -0.00095, 0.00149, -0.02003, 0.01333, -0.00934, 0.02104, 0.00099, -0.02433, -0.01774, 0.01918, 0.02754, -0.01461, -0.00466, -0.02693, -0.00334, -0.02401, -0.01407, -0.00503, 0.01297, 0.00086, -0.01453, -0.00457, -0.01933, 0.03006, -0.03166, -0.01242, 0.01196, -0.01434, -0.00240, 0.02056, 0.00700, 0.01812, 0.00455, -0.03610, 0.03941, 0.02656, -0.01228, 0.03796, 0.01840, 0.00225, -0.02722, -0.02287, 0.00736, -0.03223, 0.01359, 0.02094, 0.02007, -0.02024, -0.00308, -0.01560, 0.03334, -0.00445, -0.02053, -0.01276, 0.00420, -0.00049, -0.01826, 0.01551, 0.02993, -0.02275, -0.01956, -0.02525, -0.01006, -0.00582, 0.02044, -0.01691, 0.00404, 0.00526, 0.01628, 0.01093, -0.00362, -0.01710, 0.03375, -0.00656, 0.01763, -0.00206, 0.02293, 0.01207, -0.00646, -0.00282, -0.00065, -0.03001, 0.02426, -0.00597, 0.00159, -0.01208, 0.00669, -0.02083, 0.02088, 0.00712, -0.00315, 0.02663, 0.03720, -0.00448, 0.03025, -0.03619, -0.01274, -0.01885, -0.02148, -0.00494, 0.00966, -0.00884, 0.02240, 0.00110, 0.01013, -0.02084, -0.00141, -0.01936, -0.00331, 0.02124, 0.01685, -0.01434, -0.03840, 0.00365, 0.02451, 0.01189, -0.00768, -0.00043, -0.01016, 0.01392, 0.02198, -0.00022, -0.00193, 0.00587, -0.01949, -0.03537, -0.00442, -0.00093, -0.02429, 0.00267, -0.01146, 0.01344, -0.02311, -0.00036, 0.01650, -0.02008, -0.01022, -0.02354, 0.01231, -0.02357, 0.00395, 0.01299, 0.04265, -0.01778, -0.02189, 0.02177, -0.02086, 0.00819, 0.00475, -0.02690, 0.03628, 0.01978, 0.03402, 0.02156, 0.00043, -0.01832, 0.02711, 0.00193, -0.01371, 0.01159, -0.01139, 0.00990, 0.02283, -0.05533, -0.00393, -0.02094, -0.00890, -0.00157, -0.01324, 0.02613, 0.01077, 0.00804, 0.05021, -0.00630, -0.00468, -0.01583, -0.00613, 0.01664, -0.00824, -0.01250, 0.01866, 0.00184, -0.00428, -0.00126, 0.00573, 0.00961, -0.02020, 0.03678, 0.00110, -0.01395, -0.00600, 0.00248, -0.01038, 0.02357, 0.02118, 0.01223, 0.01324, 0.02141, 0.00521, 0.00480, -0.02186, -0.01168, -0.00147, 0.01230, -0.01151, -0.02411, -0.03312, 0.01513, 0.02645, 0.03015, -0.01209, 0.01814, -0.01453, 0.00306, -0.01005, -0.00400, -0.00259, -0.01627, 0.00675, 0.02999, -0.00415, -0.03256, 0.01834, -0.02803, -0.01627, 0.01126, 0.00046, -0.01579, -0.02301, 0.00448, -0.00181, -0.01374, -0.01238, -0.01386, 0.00406, -0.02331, -0.00386, 0.00421, 0.00787, 0.00157, -0.00724, -0.00259, 0.01675, 0.01797, -0.02099, -0.02467, 0.00569, 0.00275, 0.00288, -0.03693, -0.00320, -0.00818, 0.04995, -0.05362, -0.00791, -0.00448, -0.02053, -0.02514, -0.01986, -0.01769, -0.00036, 0.01487, -0.00780, -0.00790, 0.01235, -0.00618, 0.01372, 0.04713, -0.01990, 0.00167, -0.01553, -0.01627, 0.00626, 0.01826, 0.01973, 0.00952, -0.00021, -0.01691, -0.00985, -0.04007, -0.02191, 0.00067, 0.01463, -0.00298, 0.00367, 0.02409, 0.01199, -0.00304, 0.02754, -0.00311, 0.01133, 0.02572, 0.00473, 0.02266, 0.02981, -0.00460, 0.01478, 0.01342, -0.02764, -0.00808, -0.03237, -0.01489, 0.00319, -0.00310, -0.04434, -0.00937, -0.01379, -0.02438, -0.01124, 0.01654, -0.00189, 0.00750, -0.01278, -0.03392, 0.02812, -0.01283, -0.03744, -0.01105, -0.02937, 0.00975, 0.00193, -0.00758, -0.01299, -0.00498, 0.01450, 0.00576, 0.00575, 0.01354, 0.00308, -0.00125, 0.03781, -0.02348, -0.00831, -0.02685, -0.00063, -0.02069, -0.02827, 0.01730, 0.02984, 0.01160, 0.00204, 0.00945, -0.00852, -0.01710, 0.03440, 0.01521, -0.01841, -0.03840, 0.00611, 0.00369, -0.02393, 0.00913, -0.00721, -0.00353, 0.01418, -0.02693, 0.02963, 0.02015, 0.01089, -0.00899, -0.01444, -0.01098, -0.01870, -0.01702, -0.05165, 0.00735, -0.02270, -0.04094, 0.00896, 0.02009, -0.00248, -0.02160, 0.02201, 0.00037, 0.01984, 0.03499, -0.01786, -0.00561, 0.02035, 0.01329, 0.01014, 0.01847, -0.00314, 0.01159, 0.03624, 0.00211, 0.00650, 0.01251, 0.02052, 0.01815, -0.01625, -0.03406, 0.00949, 0.02683, 0.01477, -0.00108, 0.00502, -0.00486, 0.01037, 0.02359, -0.01526, -0.00918, -0.00834, -0.02371, 0.01115, 0.00477, 0.00467, -0.01249, 0.01070, 0.02049, 0.00850, -0.01011, 0.02210, 0.02301, -0.02031, 0.04019, 0.00376, -0.00665, -0.04040, 0.01829, -0.01891, 0.01552, 0.00808, -0.00209, 0.00838, -0.01009, -0.03189, -0.00235, 0.00526, 0.02727, -0.01051, 0.00753, -0.01015, -0.02949, -0.00178, 0.02083, 0.01235, -0.00373, -0.04657, -0.01319, 0.00174, 0.02476, -0.02590, -0.01357, -0.03631, -0.03365, 0.01079, -0.00298, -0.02589, -0.01067, -0.01379, 0.01588, -0.03038, 0.04405, 0.01735, 0.02947, -0.01147, 0.00160, 0.00361, -0.04786},
		{0.01159, 0.00385, -0.01104, -0.01734, -0.00151, 0.01888, 0.02476, -0.00874, -0.01619, 0.01625, -0.02659, 0.01144, 0.01291, 0.00785, 0.02369, -0.00930, 0.00243, 0.00566, 0.00105, -0.02128, 0.02181, -0.03410, 0.01100, -0.00495, 0.01465, -0.02620, -0.00411, 0.03365, 0.01568, -0.00136, 0.00403, -0.00099, 0.01821, -0.00461, 0.00857, -0.00925, -0.02233, 0.02387, 0.00684, 0.00249, 0.00530, -0.00603, -0.01557, -0.00798, -0.00415, -0.01975, -0.04394, 0.00339, -0.01999, 0.01113, 0.02796, 0.00394, -0.00974, 0.00550, 0.01148, -0.00744, -0.01253, -0.00241, 0.00169, 0.00080, -0.00027, -0.00167, 0.04266, -0.01990, -0.01188, -0.00295, -0.02911, 0.00695, 0.03056, -0.00299, 0.01021, -0.00468, -0.01169, -0.01581, 0.00209, 0.03193, 0.02865, -0.01322, -0.01888, 0.01053, -0.01713, 0.02656, 0.01198, 0.01277, 0.00364, -0.00544, 0.01834, 0.01817, -0.02921, 0.01867, -0.03113, -0.03310, -0.01286, -0.02867, -0.01224, -0.00083, -0.00762, 0.03679, 0.02957, 0.01522, -0.00687, 0.00374, 0.00225, 0.00480, -0.03294, -0.00751, 0.00618, 0.00851, -0.01947, 0.02931, 0.00033, -0.00064, -0.02424, 0.01268, -0.00544, -0.00866, 0.00969, 0.00806, -0.03521, 0.01394, -0.01000, -0.01319, -0.02326, 0.00560, 0.02458, -0.00589, 0.04208, -0.01768, 0.00527, -0.01687, 0.00912, 0.01746, 0.00297, 0.01716, -0.00055, -0.00086, 0.03192, -0.02864, -0.03819, 0.02269, 0.03294, 0.01814, -0.02490, -0.04149, -0.01190, -0.02317, 0.04034, 0.01769, -0.00600, -0.00906, -0.01980, 0.00201, 0.02026, 0.00049, 0.02563, 0.00172, -0.00342, 0.00736, 0.03415, -0.00344, -0.02254, -0.00520, 0.00123, 0.00026, 0.01233, -0.00458, -0.01453, -0.02523, 0.03505, 0.00353, -0.00852, 0.00695, 0.01005, -0.00100, -0.01103, 0.02096, -0.01443, 0.03166, 0.01026, 0.01484, 0.01575, -0.01561, -0.03150, -0.03961, -0.02638, 0.01155, 0.01148, -0.01396, 0.00120, -0.02182, -0.02044, -0.01235, 0.02851, 0.00241, 0.01364, 0.00166, -0.00280, -0.00436, 0.00049, 0.02343, -0.00413, -0.00194, -0.00602, -0.02259, -0.00450, -0.01867, 0.04429, -0.00905, -0.02293, -0.01970, 0.01122, 0.01530, 0.01790, 0.02559, -0.02150, -0.04799, -0.01852, -0.03642, -0.00907, -0.00015, 0.01383, 0.00827, -0.04215, -0.03282, -0.04243, -0.01107, -0.05088, -0.00702, -0.01338, -0.05074, -0.02914, 0.02724, -0.02217, 0.01009, -0.00877, -0.01128, 0.02340, -0.00697, -0.02072, 0.00131, 0.01402, 0.01033, 0.01064, 0.02098, -0.00030, -0.02575, 0.00656, 0.01026, 0.01025, -0.01721, 0.00862, 0.01911, -0.01859, 0.01049, -0.01457, 0.00708, 0.04989, 0.04696, 0.00213, 0.02591, -0.03459, 0.02412, 0.02551, 0.00783, -0.01827, -0.00981, -0.00437, 0.01374, 0.03932, -0.01810, -0.01908, -0.00988, -0.00629, -0.00902, 0.02176, -0.01301, 0.03529, -0.00295, -0.01306, -0.00280, -0.00479, -0.00351, -0.01948, 0.02324, -0.02015, -0.00526, 0.01450, 0.00560, 0.01953, -0.00291, -0.02215, 0.01485, 0.01149, 0.01118, 0.03467, -0.01840, -0.02026, 0.01458, -0.02778, -0.00156, 0.01781, 0.02171, -0.02560, -0.01722, -0.03276, -0.01387, -0.00454, 0.03521, -0.01168, -0.01975, -0.03158, -0.01477, -0.00562, 0.00854, -0.02352, -0.01310, 0.00926, 0.01835, -0.00689, 0.06208, 0.01313, 0.03975, -0.02773, -0.02677, 0.00639, 0.00107, 0.01212, -0.00375, 0.00425, -0.01298, 0.00246, 0.01956, 0.01253, 0.02817, 0.00405, 0.02085, 0.01016, -0.02991, 0.03031, 0.01886, -0.00610, 0.03081, -0.01160, 0.00234, -0.01289, 0.03398, -0.00775, -0.01344, -0.02077, 0.02782, -0.05017, 0.01189, 0.01293, 0.03343, 0.05309, -0.02939, -0.02023, 0.01274, 0.00193, 0.01025, -0.01251, -0.02263, 0.01750, -0.02289, -0.01812, -0.00300, -0.00204, 0.00657, 0.02158, 0.01959, 0.02439, 0.04553, -0.01124, -0.02626, 0.01564, 0.01249, 0.00526, -0.01713, -0.00324, -0.00467, 0.00277, 0.01109, 0.02244, 0.00419, 0.02900, 0.01378, -0.01558, 0.02601, -0.02427, -0.01970, -0.02804, -0.00151, 0.01320, 0.00891, 0.02366, 0.01821, 0.02929, 0.00301, -0.04409, 0.01758, -0.00700, -0.00630, -0.00704, 0.00295, -0.00611, -0.01063, -0.00283, -0.00535, -0.00485, 0.00611, 0.00797, -0.00946, 0.00074, 0.00817, -0.02111, -0.03367, -0.00779, -0.01276, -0.00664, 0.00586, 0.02313, -0.02332, -0.00738, 0.00751, 0.01388, 0.01881, 0.01400, -0.01431, 0.00933, 0.00605, -0.02636, -0.01979, 0.03963, 0.00383, -0.03977, -0.01197, -0.03939, 0.00490, -0.02414, 0.01409, -0.01832, -0.00231, -0.02805, 0.00810, -0.01247, -0.01028, -0.00511, 0.01993, 0.01447, -0.02987, 0.01524, -0.04180, -0.03575, -0.01254, 0.01392, -0.02954, -0.02446, -0.03043, 0.01352, 0.00156, -0.01696, -0.01534, -0.01727, 0.00345, -0.03876, -0.00351, 0.00394, -0.00067, -0.01168, -0.00082, 0.00751, -0.00565, 0.00407, 0.02875, -0.02410, 0.00949, -0.00022, 0.02508, 0.02520, -0.00284, 0.02182, -0.00833, -0.00923, -0.00750, -0.01549, -0.02545, -0.00761, 0.01183, -0.01640, -0.02681, 0.00027, 0.01218, 0.01188, -0.02801, -0.02847, -0.00114, -0.02679, 0.02064, 0.02384, 0.04009, -0.02092, -0.01793, -0.02339, -0.00683, 0.01850, -0.02967, -0.01395, 0.03097, 0.01301, -0.01680, 0.00531, -0.00554, -0.01909, -0.04879, 0.02043, 0.01063, 0.02865, 0.01394, 0.02565, 0.01813, -0.03645, 0.00026, -0.00002, 0.02635, 0.00162, 0.01373, -0.00580, 0.03657, -0.00258, 0.00156, -0.00782, 0.00911, 0.02588, -0.02301, -0.00301, 0.01568, -0.03225, 0.00050, 0.00321, -0.00256, -0.00980, 0.01761, -0.00421, -0.02233, 0.01986, -0.00135, -0.00048, -0.01445, -0.02620, 0.00150, 0.03919, 0.00323, 0.00921, 0.00262, 0.00950, 0.00521, -0.04028, -0.01625, -0.00914, -0.00041, 0.00616, 0.02677, 0.01437, -0.01230, -0.01809, -0.00323, 0.00585, 0.01109, 0.04461, -0.01067, -0.00273, -0.01879, 0.00417, 0.00610, 0.00046, -0.02006, -0.03405, -0.03202, -0.01889, -0.01074, -0.00297, 0.02575, -0.03372, -0.02283, 0.00636, -0.01527, 0.03389, 0.01056, -0.00960, -0.00211, 0.00865, 0.02861, 0.00883, -0.01746, -0.02292, 0.00998, -0.02201, -0.00460, 0.02166, 0.03468, -0.04274, -0.02769, 0.00198, -0.00356, 0.02014, -0.01634, -0.00121, -0.01409, -0.00424, 0.03535, -0.01397, -0.00089, -0.02665, 0.01756, 0.00075, -0.02510, -0.01409, 0.01702, 0.00241, -0.04012, -0.03754, 0.00867, 0.00321, 0.01649, 0.00753, 0.02431, 0.04974, -0.01679, -0.02226, 0.00489, 0.01095, 0.00114, 0.03918, 0.02786, 0.01364, 0.01147, -0.02956, 0.00487, 0.00625, 0.03115, -0.02276, -0.00500, -0.00123, 0.01072, -0.01035, 0.02757, -0.00046, 0.00051, 0.00623, -0.00764, -0.00129, -0.00233, 0.00410, -0.00715, -0.00215, 0.00452, -0.00369, 0.00655, -0.00472, -0.00771, -0.00717, 0.04290, -0.00351, -0.00272, 0.00333, -0.01205, 0.01800, -0.00451, -0.00415, 0.02030, 0.02172, 0.05169, 0.01350, 0.01998, -0.02401, -0.01769, -0.01158, 0.00187, -0.00280, -0.00324, 0.03378, 0.00100, -0.03231, 0.02282, -0.01721, 0.01607, 0.03380, 0.01367, 0.02717, -0.03551, 0.00599, -0.01314, 0.01698, -0.00546, 0.01317, -0.05303, 0.02762, 0.01045, 0.03436, -0.00247, -0.01989, 0.00041, 0.03655, 0.00358, 0.02871, -0.00667, 0.00833, 0.02836, -0.01848, -0.00257, 0.00780, 0.03348, -0.02211, 0.00580, 0.00974, 0.00192, -0.00792, -0.00082, 0.01925, 0.02086, -0.00244, 0.00002, -0.00172, 0.02911, -0.00921, 0.02110, 0.02154, 0.01793, 0.00115, -0.02380, -0.02737, 0.04088, 0.00072, -0.00386, 0.04157, 0.02085, 0.06410, 0.00861, 0.00681, -0.01134, -0.00851, 0.03613, -0.03136, 0.01604, -0.02575, -0.02153, -0.03969, 0.00353, -0.01343, -0.00575, 0.01069, 0.00125, 0.02190, 0.01218, -0.01061, -0.00195, -0.00205, 0.01490, 0.02222, 0.02605, 0.02055, -0.01359, -0.02379, -0.01169, -0.00092, -0.01728, -0.00518, 0.02935}
};

float classify_bias[2] = {0.00000,0.00000};
